<?xml version="1.0"?>
<opencv_storage>
<stage11>
  <maxWeakCount>15</maxWeakCount>
  <stageThreshold>-1.2317167520523071e+000</stageThreshold>
  <weakClassifiers>
    <_>
      <internalNodes>
        0 -1 841 -1187971168 -588644364 -1342177292 -75929930
        -1376453148 2146926583 2147452056 -1073793713</internalNodes>
      <leafValues>
        -2.3934933543205261e-001 4.3582510948181152e-001</leafValues></_>
    <_>
      <internalNodes>
        0 -1 176 1072758752 1962803194 788348917 -53521 2138501040
        -729089 -1074270293 -1077990337</internalNodes>
      <leafValues>
        -2.1710892021656036e-001 4.7581142187118530e-001</leafValues></_>
    <_>
      <internalNodes>
        0 -1 1 -129959872 1116061782 -2012085904 2013364498 -402542829
        -1878712127 -96397264 2099327359</internalNodes>
      <leafValues>
        -4.6449863910675049e-001 2.4697405099868774e-001</leafValues></_>
    <_>
      <internalNodes>
        0 -1 1842 -672347816 -970428556 -1610617298 -1212470027
        -1367410741 -320405636 -1214644325 -1218737013</internalNodes>
      <leafValues>
        -2.5168967247009277e-001 5.2729088068008423e-001</leafValues></_>
    <_>
      <internalNodes>
        0 -1 2669 -461918306 1051918193 -1166082052 1438293753
        -713925114 896743287 -405324326 -78120997</internalNodes>
      <leafValues>
        -2.4687328934669495e-001 4.3977117538452148e-001</leafValues></_>
    <_>
      <internalNodes>
        0 -1 5317 -237065356 293063293 -1342476569 929054051 1585349791
        1757181810 -2064032325 -2130214227</internalNodes>
      <leafValues>
        -2.9366016387939453e-001 4.2900863289833069e-001</leafValues></_>
    <_>
      <internalNodes>
        0 -1 1732 577980930 1644859485 -922679144 -1260567914 1234704794
        1245807240 1426858048 677449157</internalNodes>
      <leafValues>
        -6.3336110115051270e-001 1.8261450529098511e-001</leafValues></_>
    <_>
      <internalNodes>
        0 -1 7609 -1397911644 -999023570 786853476 1428193172
        -1137066348 81264629 -1887966070 -645160993</internalNodes>
      <leafValues>
        -2.5298416614532471e-001 4.9300247430801392e-001</leafValues></_>
    <_>
      <internalNodes>
        0 -1 2999 -1010439362 387420487 135825672 1401207132 -1073110898
        -1029324416 25239782 802560538</internalNodes>
      <leafValues>
        -3.9139449596405029e-001 3.5196319222450256e-001</leafValues></_>
    <_>
      <internalNodes>
        0 -1 5371 35422336 558317903 -2122211110 -1865399845 318999503
        -134217728 -656621398 355663951</internalNodes>
      <leafValues>
        -4.2892920970916748e-001 3.3370682597160339e-001</leafValues></_>
    <_>
      <internalNodes>
        0 -1 7048 -226049151 -1760264192 -1593700184 -1286535856
        -377319264 1073758408 950274080 1943241143</internalNodes>
      <leafValues>
        -3.7868914008140564e-001 3.7256437540054321e-001</leafValues></_>
    <_>
      <internalNodes>
        0 -1 7813 -766783864 312982184 -1261875 1436909244 749979338
        184143445 1723777915 927981391</internalNodes>
      <leafValues>
        -3.3435523509979248e-001 4.2105850577354431e-001</leafValues></_>
    <_>
      <internalNodes>
        0 -1 1345 -747527800 -550096961 -1099141558 -1305051402
        -2022246519 980295669 1165968862 -1845772647</internalNodes>
      <leafValues>
        -2.6882198452949524e-001 5.5983930826187134e-001</leafValues></_>
    <_>
      <internalNodes>
        0 -1 160 -1119879204 -8601 -1157632070 2147479291 -865900017
        -215233044 1073259578 -640475624</internalNodes>
      <leafValues>
        -3.1384167075157166e-001 4.7347155213356018e-001</leafValues></_>
    <_>
      <internalNodes>
        0 -1 3720 1987749569 937504501 -671158288 1933307639 -973668703
        1383528423 -151591478 -46139925</internalNodes>
      <leafValues>
        -2.7386912703514099e-001 5.5604726076126099e-001</leafValues></_></weakClassifiers></stage11>
</opencv_storage>
