<?xml version="1.0"?>
<opencv_storage>
<stage1>
  <maxWeakCount>9</maxWeakCount>
  <stageThreshold>-1.1415588855743408e+000</stageThreshold>
  <weakClassifiers>
    <_>
      <internalNodes>
        0 -1 11 -522 -131073 -4391052 -131073 -673724940 -42074116
        -671758348 -671088657</internalNodes>
      <leafValues>
        -4.7047969698905945e-001 5.5676853656768799e-001</leafValues></_>
    <_>
      <internalNodes>
        0 -1 233 -8585764 -143628 -459668 -2129985 2134503392 2138079229
        -1375966352 -541379125</internalNodes>
      <leafValues>
        -4.1943517327308655e-001 4.7324165701866150e-001</leafValues></_>
    <_>
      <internalNodes>
        0 -1 2025 -553659701 -252182549 -268534054 -968970753 1178416144
        657801077 -676034734 -134744577</internalNodes>
      <leafValues>
        -3.7836548686027527e-001 5.0761371850967407e-001</leafValues></_>
    <_>
      <internalNodes>
        0 -1 1022 -1781800730 -77082472 -796753322 -1786707835 647594
        -1879046144 110561963 596312462</internalNodes>
      <leafValues>
        -4.8552691936492920e-001 4.2233791947364807e-001</leafValues></_>
    <_>
      <internalNodes>
        0 -1 528 -297996296 -63870212 1828630393 -8586256 -1344950824
        242677621 -2039304517 -1685125910</internalNodes>
      <leafValues>
        -3.2798147201538086e-001 6.1963891983032227e-001</leafValues></_>
    <_>
      <internalNodes>
        0 -1 765 -2134656786 1459962626 16863632 -654000038 1359642895
        1073758353 1091098762 410780831</internalNodes>
      <leafValues>
        -4.7852548956871033e-001 4.4354927539825439e-001</leafValues></_>
    <_>
      <internalNodes>
        0 -1 0 -803171136 2088517092 -20563 2013216061 -34097210
        -152797185 -1208047681 -1077979201</internalNodes>
      <leafValues>
        -3.2990756630897522e-001 6.6720145940780640e-001</leafValues></_>
    <_>
      <internalNodes>
        0 -1 1889 255264 489706134 67158128 -2129649253 -2138388051
        1493762691 1744869582 1780949403</internalNodes>
      <leafValues>
        -4.9453258514404297e-001 4.2883720993995667e-001</leafValues></_>
    <_>
      <internalNodes>
        0 -1 5283 1379325926 1373978114 2130349690 -501651802
        -1514348102 1716801326 116925938 2076163499</internalNodes>
      <leafValues>
        -4.4332534074783325e-001 5.0531816482543945e-001</leafValues></_></weakClassifiers></stage1>
</opencv_storage>
