<?xml version="1.0"?>
<opencv_storage>
<stage18>
  <maxWeakCount>14</maxWeakCount>
  <stageThreshold>-8.4403759241104126e-001</stageThreshold>
  <weakClassifiers>
    <_>
      <internalNodes>
        0 -1 404 907280462 757682496 1342541908 -716598976 -1609670499
        170138778 1746830628 1147279924</internalNodes>
      <leafValues>
        -4.7130435705184937e-001 1.9017544388771057e-001</leafValues></_>
    <_>
      <internalNodes>
        0 -1 456 -616763848 2103771132 -7 -4243852 -13328420 -822214788
        -1218658934 -1279589749</internalNodes>
      <leafValues>
        -2.1235197782516479e-001 4.5953986048698425e-001</leafValues></_>
    <_>
      <internalNodes>
        0 -1 281 -69666600 -519503552 1342312844 -904920369 -1060516968
        545792002 367739492 794558576</internalNodes>
      <leafValues>
        -6.1629241704940796e-001 1.7056839168071747e-001</leafValues></_>
    <_>
      <internalNodes>
        0 -1 8321 -719009912 344657703 1995422638 -1649230723 1953320367
        -446201868 -960580100 -2094309446</internalNodes>
      <leafValues>
        -2.4739095568656921e-001 3.9902746677398682e-001</leafValues></_>
    <_>
      <internalNodes>
        0 -1 1052 -1678004083 1296498605 -1090521557 -1612730441
        -1309069033 -707279066 1505477627 -106300151</internalNodes>
      <leafValues>
        -2.1991656720638275e-001 5.1175707578659058e-001</leafValues></_>
    <_>
      <internalNodes>
        0 -1 5309 -691600953 2039212725 -1107970177 1828351346
        -884538150 -1795854556 1132318729 -72424566</internalNodes>
      <leafValues>
        -1.9431164860725403e-001 5.1654428243637085e-001</leafValues></_>
    <_>
      <internalNodes>
        0 -1 2818 1701031561 199999487 1072207806 -1557123346 -243489349
        343310205 -2040988146 -856591725</internalNodes>
      <leafValues>
        -2.8961732983589172e-001 3.7983623147010803e-001</leafValues></_>
    <_>
      <internalNodes>
        0 -1 619 2062997635 -1654063254 -1431344039 434487075 801629938
        -405508239 -2097256257 -82886658</internalNodes>
      <leafValues>
        -2.3469913005828857e-001 5.3163617849349976e-001</leafValues></_>
    <_>
      <internalNodes>
        0 -1 5617 -462657536 -67653977 1827580903 -1522570335 1331681167
        -939704490 232156349 332145703</internalNodes>
      <leafValues>
        -3.2707476615905762e-001 3.8325542211532593e-001</leafValues></_>
    <_>
      <internalNodes>
        0 -1 4578 1050113967 -836915530 -1476934670 -1950433607
        -2004924483 -511771203 -1288201106 -1645480931</internalNodes>
      <leafValues>
        -2.6074469089508057e-001 4.7393351793289185e-001</leafValues></_>
    <_>
      <internalNodes>
        0 -1 7914 -931471648 -64428177 -822200856 -689767762 536713952
        -1311873154 -1370060899 -67201350</internalNodes>
      <leafValues>
        -2.1778029203414917e-001 5.2277749776840210e-001</leafValues></_>
    <_>
      <internalNodes>
        0 -1 8084 584821538 1880113411 16814080 160469489 100903084
        -725352448 -754884406 114805982</internalNodes>
      <leafValues>
        -3.9913025498390198e-001 3.2000356912612915e-001</leafValues></_>
    <_>
      <internalNodes>
        0 -1 1292 1952716143 -1437658875 -1215213154 -1856847782
        545856093 1029275649 940053454 -509015768</internalNodes>
      <leafValues>
        -3.5433265566825867e-001 3.8432753086090088e-001</leafValues></_>
    <_>
      <internalNodes>
        0 -1 4623 1686092579 -311235915 2142222808 -1410057123
        -805980524 -301990025 -1942493584 -628390517</internalNodes>
      <leafValues>
        -2.5566032528877258e-001 5.2245253324508667e-001</leafValues></_></weakClassifiers></stage18>
</opencv_storage>
