<?xml version="1.0"?>
<opencv_storage>
<stage0>
  <maxWeakCount>6</maxWeakCount>
  <stageThreshold>-1.4914461374282837e+000</stageThreshold>
  <weakClassifiers>
    <_>
      <internalNodes>
        0 -1 10 -2229504 -681590775 1611120640 -586989009 1342626560
        1091633153 1931682080 -146279677</internalNodes>
      <leafValues>
        -8.0628931522369385e-001 5.3195023536682129e-001</leafValues></_>
    <_>
      <internalNodes>
        0 -1 330 -137694209 -619544574 1074266122 -775446394 -478105407
        -1874657280 42567688 -572995512</internalNodes>
      <leafValues>
        -6.6883927583694458e-001 4.2972478270530701e-001</leafValues></_>
    <_>
      <internalNodes>
        0 -1 754 -539492402 -505822881 1346392186 -7909049 1644322882
        301989888 1224974462 1963438707</internalNodes>
      <leafValues>
        -6.8003404140472412e-001 3.9095103740692139e-001</leafValues></_>
    <_>
      <internalNodes>
        0 -1 54 -1043596034 -1248653079 -1342111200 -116698925 287975662
        -1056964053 274237867 432210051</internalNodes>
      <leafValues>
        -4.9024412035942078e-001 5.2650314569473267e-001</leafValues></_>
    <_>
      <internalNodes>
        0 -1 1380 -761688064 -795770748 -1862139752 1939144851
        -268201966 8388608 1108414474 -1243884917</internalNodes>
      <leafValues>
        -5.0597703456878662e-001 5.0569760799407959e-001</leafValues></_>
    <_>
      <internalNodes>
        0 -1 22 -1049605 -268435457 -1 -4194305 -1065841909 292558678
        399672528 1433770495</internalNodes>
      <leafValues>
        -4.8226323723793030e-001 5.6137359142303467e-001</leafValues></_></weakClassifiers></stage0>
</opencv_storage>
