<?xml version="1.0"?>
<opencv_storage>
<stage4>
  <maxWeakCount>13</maxWeakCount>
  <stageThreshold>-1.0850859880447388e+000</stageThreshold>
  <weakClassifiers>
    <_>
      <internalNodes>
        0 -1 1382 -358 -33570817 -4260816 -598025 1970777876 2012741623
        1609667856 -150999057</internalNodes>
      <leafValues>
        -3.5883423686027527e-001 4.3680709600448608e-001</leafValues></_>
    <_>
      <internalNodes>
        0 -1 803 -133196802 -918052853 58753288 -519863551 18465176
        19435520 -1064642388 1439148762</internalNodes>
      <leafValues>
        -3.8363537192344666e-001 3.6170586943626404e-001</leafValues></_>
    <_>
      <internalNodes>
        0 -1 0 1897976832 -1183007307 -1102475 -71361259 -1744832546
        -1671169 -1242091605 2076130731</internalNodes>
      <leafValues>
        -3.3459067344665527e-001 4.5738148689270020e-001</leafValues></_>
    <_>
      <internalNodes>
        0 -1 1023 -1355768016 2138947500 -16777223 -561411 -814370896
        -545783940 -1384193601 -1247082084</internalNodes>
      <leafValues>
        -3.3997103571891785e-001 4.7305893898010254e-001</leafValues></_>
    <_>
      <internalNodes>
        0 -1 791 -178041688 -213278270 479232019 -40693420 1692008623
        -2113376166 1216891022 694815454</internalNodes>
      <leafValues>
        -4.6069979667663574e-001 3.5913464426994324e-001</leafValues></_>
    <_>
      <internalNodes>
        0 -1 6913 -10367792 -122589210 -1157726266 -604950930
        -1082845280 720732141 402437784 -217328530</internalNodes>
      <leafValues>
        -2.6020005345344543e-001 6.0600614547729492e-001</leafValues></_>
    <_>
      <internalNodes>
        0 -1 4352 -2045999772 -606990013 856703344 -974974408 1360650730
        152052608 -1056947254 1238206851</internalNodes>
      <leafValues>
        -4.0514695644378662e-001 3.9005053043365479e-001</leafValues></_>
    <_>
      <internalNodes>
        0 -1 280 17844736 -800554859 805306774 -2371445 1224737313
        -1333788672 965225392 -475035576</internalNodes>
      <leafValues>
        -4.2721468210220337e-001 3.7256085872650146e-001</leafValues></_>
    <_>
      <internalNodes>
        0 -1 6553 -43298833 1530199936 -1967538185 -1682772697
        1433853949 24510269 1290644718 1640699651</internalNodes>
      <leafValues>
        -4.0046939253807068e-001 4.1529604792594910e-001</leafValues></_>
    <_>
      <internalNodes>
        0 -1 4052 -2060926812 294442179 -754436902 855679195 1411743955
        536914106 318945403 689711241</internalNodes>
      <leafValues>
        -5.0590944290161133e-001 3.2954454421997070e-001</leafValues></_>
    <_>
      <internalNodes>
        0 -1 757 -207672805 1364230158 66081 -251592437 1409400985
        272712320 423934264 1460738586</internalNodes>
      <leafValues>
        -5.1834541559219360e-001 3.2391446828842163e-001</leafValues></_>
    <_>
      <internalNodes>
        0 -1 7802 -328277648 1738833788 666758777 917007610 -277553292
        -541753482 913822971 -1350867634</internalNodes>
      <leafValues>
        -3.7944960594177246e-001 4.7884944081306458e-001</leafValues></_>
    <_>
      <internalNodes>
        0 -1 1122 1936682883 -8519826 -142694402 -1107460116 1131279293
        476364485 -1603140418 -50148066</internalNodes>
      <leafValues>
        -2.8202891349792480e-001 5.5599856376647949e-001</leafValues></_></weakClassifiers></stage4>
</opencv_storage>
