<?xml version="1.0"?>
<opencv_storage>
<stage24>
  <maxWeakCount>9</maxWeakCount>
  <stageThreshold>-1.3316773176193237e+000</stageThreshold>
  <weakClassifiers>
    <_>
      <internalNodes>
        0 -1 3372 -1062480486 -668913864 -302612664 -618535891
        1287479074 -555082626 931044087 -1996512827</internalNodes>
      <leafValues>
        -2.7297481894493103e-001 7.5517892837524414e-001</leafValues></_>
    <_>
      <internalNodes>
        0 -1 1416 57422954 524025665 -285229330 -1931379935 -1494002975
        1682964324 -545882349 -258900763</internalNodes>
      <leafValues>
        -3.4624087810516357e-001 5.8809226751327515e-001</leafValues></_>
    <_>
      <internalNodes>
        0 -1 2399 -97664393 2100231991 -353406990 1067921406 947208104
        -195795081 -2047412522 -70070455</internalNodes>
      <leafValues>
        -3.0474632978439331e-001 8.3568441867828369e-001</leafValues></_>
    <_>
      <internalNodes>
        0 -1 1767 -106487259 1936612982 -1627410765 -2072445197
        -1793188181 114235253 -1107877308 -841626520</internalNodes>
      <leafValues>
        -2.6348561048507690e-001 7.3301941156387329e-001</leafValues></_>
    <_>
      <internalNodes>
        0 -1 2177 1342441664 -2121772464 1090555924 -1073676156
        553652681 25479168 -2063564536 2009772787</internalNodes>
      <leafValues>
        -5.3832292556762695e-001 4.8281443119049072e-001</leafValues></_>
    <_>
      <internalNodes>
        0 -1 6641 -1833456327 -1827541453 -1157744903 -235837470
        2122225110 -697011137 -1476848304 2091360272</internalNodes>
      <leafValues>
        -3.7831550836563110e-001 6.2597286701202393e-001</leafValues></_>
    <_>
      <internalNodes>
        0 -1 4937 1245267219 15642247 754761639 2037636966 653516492
        1610559229 -1459872584 -1883340319</internalNodes>
      <leafValues>
        -4.1823381185531616e-001 6.3610398769378662e-001</leafValues></_>
    <_>
      <internalNodes>
        0 -1 542 988553575 -873271582 1786768942 2016575353 -2039020129
        456647451 888407677 789829284</internalNodes>
      <leafValues>
        -4.9893441796302795e-001 5.6848788261413574e-001</leafValues></_>
    <_>
      <internalNodes>
        0 -1 7043 -14119092 -1141805202 -1213792733 426127332 401953177
        1450540671 -1350733178 -2147018881</internalNodes>
      <leafValues>
        -4.4735878705978394e-001 6.1030155420303345e-001</leafValues></_></weakClassifiers></stage24>
</opencv_storage>
