<?xml version="1.0"?>
<opencv_storage>
<stage21>
  <maxWeakCount>15</maxWeakCount>
  <stageThreshold>-8.0445915460586548e-001</stageThreshold>
  <weakClassifiers>
    <_>
      <internalNodes>
        0 -1 1446 -1414553301 1879281794 16810257 18612234 1092694944
        1076101252 -2104760640 285713107</internalNodes>
      <leafValues>
        -4.1832670569419861e-001 2.5260624289512634e-001</leafValues></_>
    <_>
      <internalNodes>
        0 -1 7966 -752516978 17874791 -323076238 2012292031 486018949
        1710646782 1602164370 -789635697</internalNodes>
      <leafValues>
        -2.6037088036537170e-001 3.6735746264457703e-001</leafValues></_>
    <_>
      <internalNodes>
        0 -1 5018 -786741343 2138400701 -538673167 631466799 427673835
        -895455746 2033938794 -1223925265</internalNodes>
      <leafValues>
        -2.3435173928737640e-001 4.3361952900886536e-001</leafValues></_>
    <_>
      <internalNodes>
        0 -1 5479 -64950288 -207245610 -21041245 -1870696978 652541414
        607125444 -2030240516 -1159307922</internalNodes>
      <leafValues>
        -2.9210773110389709e-001 3.8718160986900330e-001</leafValues></_>
    <_>
      <internalNodes>
        0 -1 4450 203863615 1563410431 -1111720031 770486078 -319453193
        654073846 1048484925 -544098537</internalNodes>
      <leafValues>
        -2.0076018571853638e-001 4.9129030108451843e-001</leafValues></_>
    <_>
      <internalNodes>
        0 -1 7480 1184402986 1478180996 1342443737 -1249377202
        1611477193 1259454861 722472376 572390027</internalNodes>
      <leafValues>
        -4.6269634366035461e-001 2.5595143437385559e-001</leafValues></_>
    <_>
      <internalNodes>
        0 -1 1184 -1092259989 2113781631 -16830534 2143428587
        -1795320701 -2135322666 364817501 957060158</internalNodes>
      <leafValues>
        -2.8893336653709412e-001 4.2735147476196289e-001</leafValues></_>
    <_>
      <internalNodes>
        0 -1 434 -1140870170 1320906479 -1074352413 -138805277
        -1930584779 615628625 2121757162 -244408588</internalNodes>
      <leafValues>
        -2.4185392260551453e-001 4.7372579574584961e-001</leafValues></_>
    <_>
      <internalNodes>
        0 -1 6461 -15994274 1572596340 -571900677 2138767352 -780305302
        -981565454 -1745767122 -5793029</internalNodes>
      <leafValues>
        -2.3339332640171051e-001 5.9850168228149414e-001</leafValues></_>
    <_>
      <internalNodes>
        0 -1 7608 1745224192 1258405919 289522068 1346764972 1744924964
        1343717514 998783566 303207435</internalNodes>
      <leafValues>
        -5.4956781864166260e-001 2.3436148464679718e-001</leafValues></_>
    <_>
      <internalNodes>
        0 -1 7267 1592779797 -266287170 1060634366 -2074165361 611768216
        -1386283026 -579526695 -642605621</internalNodes>
      <leafValues>
        -2.6756125688552856e-001 4.6880075335502625e-001</leafValues></_>
    <_>
      <internalNodes>
        0 -1 2992 651045310 1375736227 -519961756 453797892 1510663077
        1501827137 -742274472 -1608427176</internalNodes>
      <leafValues>
        -4.4046905636787415e-001 2.9316571354866028e-001</leafValues></_>
    <_>
      <internalNodes>
        0 -1 8164 22716432 -2145468228 -1073704778 1132724228 134744593
        -1878511487 -1570584124 567169032</internalNodes>
      <leafValues>
        -5.4862296581268311e-001 2.5471296906471252e-001</leafValues></_>
    <_>
      <internalNodes>
        0 -1 3501 -1727822345 -1096836099 1778319095 1876279030
        -992077061 -79823051 1610570601 -143755537</internalNodes>
      <leafValues>
        -2.2595271468162537e-001 6.1180174350738525e-001</leafValues></_>
    <_>
      <internalNodes>
        0 -1 4551 -128275032 306778449 285350116 -980908339 187224810
        186155176 -117192248 -2117246689</internalNodes>
      <leafValues>
        -3.6703053116798401e-001 3.6121773719787598e-001</leafValues></_></weakClassifiers></stage21>
</opencv_storage>
