<?xml version="1.0"?>
<opencv_storage>
<stage17>
  <maxWeakCount>14</maxWeakCount>
  <stageThreshold>-8.3994954824447632e-001</stageThreshold>
  <weakClassifiers>
    <_>
      <internalNodes>
        0 -1 981 658013984 1710784509 -65795 -4099 934788917 -1107296771
        2147483035 -1342210082</internalNodes>
      <leafValues>
        -2.3510971665382385e-001 4.1436463594436646e-001</leafValues></_>
    <_>
      <internalNodes>
        0 -1 842 -406262840 -2074045795 -2147352414 -1606352754
        -2140486608 1107859466 1359516464 568132617</internalNodes>
      <leafValues>
        -5.0658375024795532e-001 2.0323331654071808e-001</leafValues></_>
    <_>
      <internalNodes>
        0 -1 1065 -1107497584 -16973827 -278595 -37945923 1069544624
        -289998988 654288793 -1693491986</internalNodes>
      <leafValues>
        -2.5280913710594177e-001 4.0998303890228271e-001</leafValues></_>
    <_>
      <internalNodes>
        0 -1 775 -565119096 2100469777 1090543779 1078962273 48676080
        1098917644 1770676785 642327231</internalNodes>
      <leafValues>
        -4.8930704593658447e-001 2.1427707374095917e-001</leafValues></_>
    <_>
      <internalNodes>
        0 -1 532 -324604520 515305136 -1661995367 1471282989 -1761644888
        -1672019975 723831944 554398794</internalNodes>
      <leafValues>
        -3.0777066946029663e-001 3.7432721257209778e-001</leafValues></_>
    <_>
      <internalNodes>
        0 -1 3415 -369904283 -542531741 -1073774746 1744109486
        -570444042 -780341392 -864374620 -1418871433</internalNodes>
      <leafValues>
        -2.2005042433738708e-001 5.1601296663284302e-001</leafValues></_>
    <_>
      <internalNodes>
        0 -1 1813 1400051311 -21135367 -1435897885 -160104849
        -1510203650 -1030635809 -1090627845 -1447103237</internalNodes>
      <leafValues>
        -2.6093381643295288e-001 5.0168055295944214e-001</leafValues></_>
    <_>
      <internalNodes>
        0 -1 3902 592151598 2035994691 -687841826 185090077 688441784
        -1472460788 -1105615868 300719366</internalNodes>
      <leafValues>
        -4.4294255971908569e-001 3.0043822526931763e-001</leafValues></_>
    <_>
      <internalNodes>
        0 -1 1169 1154941492 50643113 -1167850816 827395494 596139216
        1078087247 -2029304957 19388583</internalNodes>
      <leafValues>
        -5.6729739904403687e-001 2.0673270523548126e-001</leafValues></_>
    <_>
      <internalNodes>
        0 -1 351 -559046878 2071985899 -16843973 2147385149 -1239026630
        -2143391880 -1274453049 -1599937095</internalNodes>
      <leafValues>
        -3.0586910247802734e-001 3.9808100461959839e-001</leafValues></_>
    <_>
      <internalNodes>
        0 -1 5843 -446503766 -259817631 -16515 -1561295238 1672930721
        796590079 1224666990 -679121510</internalNodes>
      <leafValues>
        -3.2126671075820923e-001 4.0485575795173645e-001</leafValues></_>
    <_>
      <internalNodes>
        0 -1 6100 209873106 962904398 1078063680 1544978561 -893797156
        335716512 -1434400704 877957141</internalNodes>
      <leafValues>
        -5.2140539884567261e-001 2.4795040488243103e-001</leafValues></_>
    <_>
      <internalNodes>
        0 -1 388 2138466991 -826294273 -1343243270 -1114241 -998464123
        -922956673 1565832792 -2984324</internalNodes>
      <leafValues>
        -3.5926944017410278e-001 3.7398293614387512e-001</leafValues></_>
    <_>
      <internalNodes>
        0 -1 7231 -253828478 -773674712 775900961 1936829887 1302746435
        -420057225 -293618102 -600606885</internalNodes>
      <leafValues>
        -2.7515462040901184e-001 4.7057867050170898e-001</leafValues></_></weakClassifiers></stage17>
</opencv_storage>
