<?xml version="1.0"?>
<opencv_storage>
<stage8>
  <maxWeakCount>14</maxWeakCount>
  <stageThreshold>-8.6286175251007080e-001</stageThreshold>
  <weakClassifiers>
    <_>
      <internalNodes>
        0 -1 496 -404177444 -4395591 -268652578 -1179013123 -63050312
        -1879148675 -172482632 -1146417014</internalNodes>
      <leafValues>
        -2.3684211075305939e-001 5.1265823841094971e-001</leafValues></_>
    <_>
      <internalNodes>
        0 -1 1135 -646131816 2113699808 -25108 -36078103 -944462352
        -806584459 1444453545 -1179958050</internalNodes>
      <leafValues>
        -2.3508808016777039e-001 5.0651609897613525e-001</leafValues></_>
    <_>
      <internalNodes>
        0 -1 2760 796364343 -1627771395 -268501250 1878669298
        -2067806380 511475541 -1619724360 -180881446</internalNodes>
      <leafValues>
        -3.2629868388175964e-001 4.0008941292762756e-001</leafValues></_>
    <_>
      <internalNodes>
        0 -1 754 2072955533 -1660321399 -1055911800 927400094 1913806849
        554696739 268685467 625281799</internalNodes>
      <leafValues>
        -5.6601035594940186e-001 2.3568707704544067e-001</leafValues></_>
    <_>
      <internalNodes>
        0 -1 2993 1113304849 -791405563 16781712 1968751046 17859242
        18008776 1241717693 594627339</internalNodes>
      <leafValues>
        -3.7374955415725708e-001 3.5769918560981750e-001</leafValues></_>
    <_>
      <internalNodes>
        0 -1 120 2138889620 -671793307 -805310499 -571642177 -1208172576
        -826376193 1065197498 -1221901249</internalNodes>
      <leafValues>
        -2.8413841128349304e-001 5.3466105461120605e-001</leafValues></_>
    <_>
      <internalNodes>
        0 -1 2025 -859068262 1213067 1082163277 1086996682 1644421652
        8423948 -2147177766 -1560067445</internalNodes>
      <leafValues>
        -3.5596475005149841e-001 3.9424821734428406e-001</leafValues></_>
    <_>
      <internalNodes>
        0 -1 596 -69273201 -750309580 804231075 938553287 -1502172024
        -1879294538 247427327 725202667</internalNodes>
      <leafValues>
        -2.1918413043022156e-001 6.1054861545562744e-001</leafValues></_>
    <_>
      <internalNodes>
        0 -1 6871 60214899 1125498964 1367392666 -217353848 -410858523
        8782090 1478220206 562686638</internalNodes>
      <leafValues>
        -3.8236707448959351e-001 3.8801595568656921e-001</leafValues></_>
    <_>
      <internalNodes>
        0 -1 6368 -104676159 1513037304 -1359282262 -1990985 -151072891
        762740725 -1361845052 -272755521</internalNodes>
      <leafValues>
        -2.8725621104240417e-001 5.3543293476104736e-001</leafValues></_>
    <_>
      <internalNodes>
        0 -1 7809 2112274438 -71833928 -1881289011 -118374445
        -1359640590 -109579266 134191582 -1300391221</internalNodes>
      <leafValues>
        -2.4235157668590546e-001 5.5259013175964355e-001</leafValues></_>
    <_>
      <internalNodes>
        0 -1 7604 -72122168 -393030584 -938475130 1310732 1930084640
        268486729 -1609891432 303371907</internalNodes>
      <leafValues>
        -4.8671567440032959e-001 3.1573060154914856e-001</leafValues></_>
    <_>
      <internalNodes>
        0 -1 528 1567399912 -38089988 -318849095 -1073938448 -824856614
        -1367932955 1987198968 -1280361395</internalNodes>
      <leafValues>
        -3.4408906102180481e-001 4.5009246468544006e-001</leafValues></_>
    <_>
      <internalNodes>
        0 -1 6036 -852704088 -1073987794 -348131454 -38768866
        -1888110316 1415327741 -1192437767 -608461061</internalNodes>
      <leafValues>
        -2.5073921680450439e-001 5.7831901311874390e-001</leafValues></_></weakClassifiers></stage8>
</opencv_storage>
