<?xml version="1.0"?>
<opencv_storage>
<stage10>
  <maxWeakCount>15</maxWeakCount>
  <stageThreshold>-1.1528377532958984e+000</stageThreshold>
  <weakClassifiers>
    <_>
      <internalNodes>
        0 -1 280 1057255252 2147327725 805285627 -180353 1064376177
        -66224267 1073691563 -1342229072</internalNodes>
      <leafValues>
        -3.2065218687057495e-001 3.9508929848670959e-001</leafValues></_>
    <_>
      <internalNodes>
        0 -1 184 -1042123876 2055602305 1342522630 -209190449 1107440561
        -1073684335 1132589363 -1324996381</internalNodes>
      <leafValues>
        -4.4313877820968628e-001 2.3920555412769318e-001</leafValues></_>
    <_>
      <internalNodes>
        0 -1 1667 -30736720 -104861776 -4194307 -1346372164 -2054056009
        -1914732585 -452995925 -1145060369</internalNodes>
      <leafValues>
        -1.8813917040824890e-001 6.6828024387359619e-001</leafValues></_>
    <_>
      <internalNodes>
        0 -1 3064 -534336456 -253776840 -193289 1542130477 -742414926
        -1526907588 -1805727522 -960770629</internalNodes>
      <leafValues>
        -2.0974117517471313e-001 5.7780379056930542e-001</leafValues></_>
    <_>
      <internalNodes>
        0 -1 6479 -542404224 1880549098 -822412428 933457471 -1762134880
        1417641975 -2831086 -1118087186</internalNodes>
      <leafValues>
        -2.9705691337585449e-001 4.0698385238647461e-001</leafValues></_>
    <_>
      <internalNodes>
        0 -1 7399 -882064892 -206637829 -973641988 1802677991 2113208022
        2139004869 1189052076 -1752039737</internalNodes>
      <leafValues>
        -2.9879805445671082e-001 4.1313871741294861e-001</leafValues></_>
    <_>
      <internalNodes>
        0 -1 1088 -231226481 1381127495 1343295638 -711150240 46262722
        -863928120 -1446018290 1105822837</internalNodes>
      <leafValues>
        -4.2770892381668091e-001 3.0578976869583130e-001</leafValues></_>
    <_>
      <internalNodes>
        0 -1 1814 666344576 -1111556296 1072621041 1002208584 -886138992
        746583413 -446564358 -1313635189</internalNodes>
      <leafValues>
        -2.6976937055587769e-001 4.9743542075157166e-001</leafValues></_>
    <_>
      <internalNodes>
        0 -1 5968 -198672211 352308890 -1090638158 1906667514 -941170235
        -1361084428 662116231 -81582670</internalNodes>
      <leafValues>
        -2.5365668535232544e-001 5.3755670785903931e-001</leafValues></_>
    <_>
      <internalNodes>
        0 -1 6719 1119012779 2050145895 -1114244 -248086862 1283104741
        -656523289 1073727167 -1851550481</internalNodes>
      <leafValues>
        -3.2659164071083069e-001 4.5051348209381104e-001</leafValues></_>
    <_>
      <internalNodes>
        0 -1 495 1897024572 -741605339 939731079 -716045018 -1543388642
        176717988 -478082917 998449395</internalNodes>
      <leafValues>
        -3.8585674762725830e-001 3.6435317993164063e-001</leafValues></_>
    <_>
      <internalNodes>
        0 -1 1742 -977584141 1379056355 1932422827 132706034 1734232023
        -1669447881 -838977906 -1153771782</internalNodes>
      <leafValues>
        -2.6244848966598511e-001 5.4241865873336792e-001</leafValues></_>
    <_>
      <internalNodes>
        0 -1 8315 -725316976 -46825584 1593360051 -546435912 -1367488563
        517955575 -1091578646 -1175767630</internalNodes>
      <leafValues>
        -2.6571136713027954e-001 5.7004797458648682e-001</leafValues></_>
    <_>
      <internalNodes>
        0 -1 6194 -479740220 -348590533 -1233228121 -1142952091
        -1526820990 2003678845 -302059590 1465349833</internalNodes>
      <leafValues>
        -3.4075430035591125e-001 4.5444437861442566e-001</leafValues></_>
    <_>
      <internalNodes>
        0 -1 2060 621904998 -1450534445 -1995433866 1392521410
        -1969024518 1512360448 -939472296 100098223</internalNodes>
      <leafValues>
        -4.4864907860755920e-001 3.5320919752120972e-001</leafValues></_></weakClassifiers></stage10>
</opencv_storage>
