<?xml version="1.0"?>
<opencv_storage>
<stage12>
  <maxWeakCount>14</maxWeakCount>
  <stageThreshold>-7.3111861944198608e-001</stageThreshold>
  <weakClassifiers>
    <_>
      <internalNodes>
        0 -1 990 -1196069 -67108993 -268451842 -16387 1962708927
        628217660 634701016 -545405794</internalNodes>
      <leafValues>
        -2.6739311218261719e-001 3.9529120922088623e-001</leafValues></_>
    <_>
      <internalNodes>
        0 -1 8223 -554660220 -621826274 -2013381502 -647156811
        -713563458 -1510113665 184397051 -1141672261</internalNodes>
      <leafValues>
        -1.7766812443733215e-001 5.7601743936538696e-001</leafValues></_>
    <_>
      <internalNodes>
        0 -1 6954 -9507134 -206655508 -1245811837 2104870636 -1375621216
        111574902 -906043989 -1042320193</internalNodes>
      <leafValues>
        -2.5512877106666565e-001 4.6520629525184631e-001</leafValues></_>
    <_>
      <internalNodes>
        0 -1 7980 -766448512 -227975382 -319396180 -143360264 771538792
        -562563265 -1510628098 -1685383621</internalNodes>
      <leafValues>
        -2.3141144216060638e-001 4.8546558618545532e-001</leafValues></_>
    <_>
      <internalNodes>
        0 -1 60 -63761210 1325793600 -2130528812 -11464605 -2120209976
        1443432993 27455644 1440834628</internalNodes>
      <leafValues>
        -5.7196599245071411e-001 2.1160264313220978e-001</leafValues></_>
    <_>
      <internalNodes>
        0 -1 2687 1116340227 -1231536122 303616210 201347458 302154477
        1352828961 705855663 1933845711</internalNodes>
      <leafValues>
        -4.4438579678535461e-001 3.0903887748718262e-001</leafValues></_>
    <_>
      <internalNodes>
        0 -1 1198 -123433676 -539557912 -67108903 1509552089 -159866951
        -1887502403 -1905161733 -1145315906</internalNodes>
      <leafValues>
        -2.0303489267826080e-001 6.6293978691101074e-001</leafValues></_>
    <_>
      <internalNodes>
        0 -1 2801 -126907350 1828699825 -21168193 -805916974 -696784957
        -449480865 -26167334 -1021837825</internalNodes>
      <leafValues>
        -2.4723576009273529e-001 5.4462319612503052e-001</leafValues></_>
    <_>
      <internalNodes>
        0 -1 5760 -41974105 1937043341 2130131640 758361392 148848503
        -941228300 1028947240 710128738</internalNodes>
      <leafValues>
        -3.0979821085929871e-001 4.1470485925674438e-001</leafValues></_>
    <_>
      <internalNodes>
        0 -1 279 -800994560 830472592 -1006329644 524734677 455395484
        464130944 -2113433788 19405876</internalNodes>
      <leafValues>
        -6.0581111907958984e-001 2.0492208003997803e-001</leafValues></_>
    <_>
      <internalNodes>
        0 -1 5478 -746956866 -210047262 -1476924430 -260129228
        -2105631315 2037800407 2029682586 -63495460</internalNodes>
      <leafValues>
        -3.0955782532691956e-001 4.6119284629821777e-001</leafValues></_>
    <_>
      <internalNodes>
        0 -1 8103 -67441620 1584332783 -1090619457 -1515868542
        -1746539382 880246759 -180372305 1389065711</internalNodes>
      <leafValues>
        -3.2344534993171692e-001 4.3144661188125610e-001</leafValues></_>
    <_>
      <internalNodes>
        0 -1 8265 -1293431672 -238063944 -285296832 1404939036
        2138897590 209649533 1593283946 -944769057</internalNodes>
      <leafValues>
        -2.6105016469955444e-001 5.3419971466064453e-001</leafValues></_>
    <_>
      <internalNodes>
        0 -1 5455 2054745552 -684052566 -1392873485 -1314297135
        -538978362 -1619034556 -536899861 -874807633</internalNodes>
      <leafValues>
        -2.1816341578960419e-001 6.3516134023666382e-001</leafValues></_></weakClassifiers></stage12>
</opencv_storage>
