<?xml version="1.0"?>
<opencv_storage>
<stage16>
  <maxWeakCount>14</maxWeakCount>
  <stageThreshold>-1.2064536809921265e+000</stageThreshold>
  <weakClassifiers>
    <_>
      <internalNodes>
        0 -1 328 1026861020 -196625 2122104831 -1107296515 -1082277915
        -1476919299 -277047873 -1078525006</internalNodes>
      <leafValues>
        -2.1238300204277039e-001 4.8281505703926086e-001</leafValues></_>
    <_>
      <internalNodes>
        0 -1 1919 1479185280 -642187508 -1293193296 -1313997774
        -1536036438 -1126531100 -1632202757 -202429746</internalNodes>
      <leafValues>
        -1.8391650915145874e-001 5.0684785842895508e-001</leafValues></_>
    <_>
      <internalNodes>
        0 -1 4307 -1209213040 -546132034 1803485166 1440165030
        -1879071854 270630883 1609999790 -1820738053</internalNodes>
      <leafValues>
        -2.5207510590553284e-001 4.4964393973350525e-001</leafValues></_>
    <_>
      <internalNodes>
        0 -1 3335 -1442888128 -1967789086 2147401452 1542684291
        536651498 -815210568 -1124390833 -1367343347</internalNodes>
      <leafValues>
        -3.0782091617584229e-001 3.7329283356666565e-001</leafValues></_>
    <_>
      <internalNodes>
        0 -1 55 1364021479 -955838444 -2130424505 -145727155 27156968
        43612 337139755 144834638</internalNodes>
      <leafValues>
        -4.7693362832069397e-001 2.6537492871284485e-001</leafValues></_>
    <_>
      <internalNodes>
        0 -1 505 -753890738 1686814730 855777714 1813877274 201449852
        76279840 -1103094692 31365260</internalNodes>
      <leafValues>
        -4.4234994053840637e-001 2.9632332921028137e-001</leafValues></_>
    <_>
      <internalNodes>
        0 -1 8459 -252911600 1940913767 1006563320 397090042 -1929394468
        -411598857 -50938483 -209979398</internalNodes>
      <leafValues>
        -2.1069017052650452e-001 5.8489763736724854e-001</leafValues></_>
    <_>
      <internalNodes>
        0 -1 6449 1245962298 1376485504 1090539542 1360805956 -670506078
        1386086476 -1282768832 665653674</internalNodes>
      <leafValues>
        -4.2477631568908691e-001 2.8161758184432983e-001</leafValues></_>
    <_>
      <internalNodes>
        0 -1 7972 -1932945782 12862173 -1342078428 -721092434 277391487
        -2141544448 281635498 1863449099</internalNodes>
      <leafValues>
        -3.4520891308784485e-001 3.7368786334991455e-001</leafValues></_>
    <_>
      <internalNodes>
        0 -1 5552 -495703804 -746567782 1438649494 843569448 335544699
        1736740882 -1865874718 547749952</internalNodes>
      <leafValues>
        -5.7421654462814331e-001 2.4259579181671143e-001</leafValues></_>
    <_>
      <internalNodes>
        0 -1 8187 1095770636 1485504904 134355717 1562017860 1619585724
        2752522 -1677553094 696883743</internalNodes>
      <leafValues>
        -3.8012072443962097e-001 3.5342586040496826e-001</leafValues></_>
    <_>
      <internalNodes>
        0 -1 4823 -2021014516 -1583869246 1627396331 -1041202796
        1342851555 1074302984 -648341038 302980546</internalNodes>
      <leafValues>
        -4.5952549576759338e-001 3.0726349353790283e-001</leafValues></_>
    <_>
      <internalNodes>
        0 -1 2486 -258326376 -988798968 1074909262 826474560 159630467
        1610776594 -1316869982 1781509006</internalNodes>
      <leafValues>
        -3.6699593067169189e-001 3.7375766038894653e-001</leafValues></_>
    <_>
      <internalNodes>
        0 -1 5316 -2132035427 513109861 -537315596 2004595823 -883084065
        213907256 1719661386 -390750926</internalNodes>
      <leafValues>
        -3.0637541413307190e-001 4.6687850356101990e-001</leafValues></_></weakClassifiers></stage16>
</opencv_storage>
