<?xml version="1.0"?>
<opencv_storage>
<stage13>
  <maxWeakCount>13</maxWeakCount>
  <stageThreshold>-1.2166464328765869e+000</stageThreshold>
  <weakClassifiers>
    <_>
      <internalNodes>
        0 -1 43 -753894970 -640454123 -1877983216 -116322285 2307584
        319031813 1637880704 1611989029</internalNodes>
      <leafValues>
        -6.4361703395843506e-001 1.4901477098464966e-001</leafValues></_>
    <_>
      <internalNodes>
        0 -1 430 -1412536542 -703887220 26260034 1514766660 109781562
        688132227 42183082 9597442</internalNodes>
      <leafValues>
        -5.1445305347442627e-001 1.7070409655570984e-001</leafValues></_>
    <_>
      <internalNodes>
        0 -1 14 -33 -1 -1048642 -1 -1912873025 -1620123651 1428657540
        2080352955</internalNodes>
      <leafValues>
        -2.2560513019561768e-001 4.4235023856163025e-001</leafValues></_>
    <_>
      <internalNodes>
        0 -1 64 2064701536 812924653 -268624325 1441639612 -1133136202
        -1082294401 -1208485973 -1109581841</internalNodes>
      <leafValues>
        -2.4930162727832794e-001 4.2378258705139160e-001</leafValues></_>
    <_>
      <internalNodes>
        0 -1 6317 1610578912 -222499861 1727725503 -1175621849
        1586476989 242614236 1911881178 -1958957175</internalNodes>
      <leafValues>
        -2.8858992457389832e-001 4.2194569110870361e-001</leafValues></_>
    <_>
      <internalNodes>
        0 -1 4793 1190053584 -571470062 1052704529 289279134 -940746303
        1467481975 208981663 -1425429414</internalNodes>
      <leafValues>
        -2.7152696251869202e-001 4.2485004663467407e-001</leafValues></_>
    <_>
      <internalNodes>
        0 -1 3508 -160596431 -1443494145 1055879081 1617884111 -18942333
        744904315 1602199233 1601252830</internalNodes>
      <leafValues>
        -3.3884394168853760e-001 3.6900058388710022e-001</leafValues></_>
    <_>
      <internalNodes>
        0 -1 1532 1400020268 -500113272 1476657236 268534110 34611697
        1406382601 -1052742500 1350044070</internalNodes>
      <leafValues>
        -5.3163826465606689e-001 2.3803944885730743e-001</leafValues></_>
    <_>
      <internalNodes>
        0 -1 5308 -1601680796 -1731489619 -2143186000 1000361996
        21078457 1346994248 1225503128 123930628</internalNodes>
      <leafValues>
        -4.9773436784744263e-001 2.5192004442214966e-001</leafValues></_>
    <_>
      <internalNodes>
        0 -1 1790 -1346453819 -1651265857 771728951 -147132425 914300395
        -1914800163 998241690 -614498882</internalNodes>
      <leafValues>
        -2.8961136937141418e-001 4.8932105302810669e-001</leafValues></_>
    <_>
      <internalNodes>
        0 -1 2026 -268669233 1652404221 -1350631427 -1074397188
        1429534241 -185209481 -843467024 1130542591</internalNodes>
      <leafValues>
        -3.2897177338600159e-001 3.9867988228797913e-001</leafValues></_>
    <_>
      <internalNodes>
        0 -1 176 294169552 -106823544 34640193 -640448311 -1073741088
        -1316978551 537129891 992936020</internalNodes>
      <leafValues>
        -4.2227599024772644e-001 3.0843880772590637e-001</leafValues></_>
    <_>
      <internalNodes>
        0 -1 2291 1451074012 1966865199 -268513346 837205153 -1006698722
        -1191911459 -1006861075 -486807742</internalNodes>
      <leafValues>
        -3.2717677950859070e-001 4.3393748998641968e-001</leafValues></_></weakClassifiers></stage13>
</opencv_storage>
