<?xml version="1.0"?>
<opencv_storage>
<stage2>
  <maxWeakCount>11</maxWeakCount>
  <stageThreshold>-1.4113065004348755e+000</stageThreshold>
  <weakClassifiers>
    <_>
      <internalNodes>
        0 -1 75 -513 -131073 -514 -1 -1354916648 -1082654723 -2049059620
        -8402977</internalNodes>
      <leafValues>
        -3.5444015264511108e-001 6.5106385946273804e-001</leafValues></_>
    <_>
      <internalNodes>
        0 -1 1388 -702941694 -696170279 -1878900415 -1277882303 4788740
        822149120 671297755 2001176747</internalNodes>
      <leafValues>
        -5.2046942710876465e-001 3.3114397525787354e-001</leafValues></_>
    <_>
      <internalNodes>
        0 -1 234 -1058351112 -787693432 -1056907192 -787955510
        -502955896 2 1401454976 -611002164</internalNodes>
      <leafValues>
        -6.4733546972274780e-001 2.6047146320343018e-001</leafValues></_>
    <_>
      <internalNodes>
        0 -1 456 -630407536 -59445252 -65542 -37896196 1874108373
        -1358954628 1062913963 -203743093</internalNodes>
      <leafValues>
        -2.5493505597114563e-001 7.0587414503097534e-001</leafValues></_>
    <_>
      <internalNodes>
        0 -1 2113 1527415148 2036400406 286265922 -1152777193
        -1016872089 419483817 185519102 1294541231</internalNodes>
      <leafValues>
        -4.8765072226524353e-001 3.8975986838340759e-001</leafValues></_>
    <_>
      <internalNodes>
        0 -1 65 -76229984 -803778302 1082687554 1359298925 -788299744
        196608 -2088709888 1060571659</internalNodes>
      <leafValues>
        -5.4992407560348511e-001 3.2081642746925354e-001</leafValues></_>
    <_>
      <internalNodes>
        0 -1 415 -1811765792 -13631406 16784338 1464733907 21129118
        -1969139352 558373771 1124139185</internalNodes>
      <leafValues>
        -5.2556079626083374e-001 3.8788905739784241e-001</leafValues></_>
    <_>
      <internalNodes>
        0 -1 4693 1699980482 1498534344 -1828431399 -879198203 1612163
        1096724992 -1022557697 28816207</internalNodes>
      <leafValues>
        -4.7818017005920410e-001 3.9427998661994934e-001</leafValues></_>
    <_>
      <internalNodes>
        0 -1 1390 -687870213 -1367539713 2147418109 -8781833 1928840464
        1440052581 2038365366 -973735941</internalNodes>
      <leafValues>
        -4.1312551498413086e-001 4.4895124435424805e-001</leafValues></_>
    <_>
      <internalNodes>
        0 -1 564 -2139045760 -801075132 16875665 -117112556 -2122270774
        -2113798016 -2122304791 157090314</internalNodes>
      <leafValues>
        -4.3259471654891968e-001 4.6754914522171021e-001</leafValues></_>
    <_>
      <internalNodes>
        0 -1 7789 -247299896 9273992 74384 1368396123 42042272
        -393609206 -1063144791 1703273151</internalNodes>
      <leafValues>
        -4.4631126523017883e-001 4.4809761643409729e-001</leafValues></_></weakClassifiers></stage2>
</opencv_storage>
