<?xml version="1.0"?>
<opencv_storage>
<stage20>
  <maxWeakCount>14</maxWeakCount>
  <stageThreshold>-7.9728102684020996e-001</stageThreshold>
  <weakClassifiers>
    <_>
      <internalNodes>
        0 -1 7027 -839916909 -68343197 -293654991 2113142652 1205253630
        883963901 1207924674 1977177330</internalNodes>
      <leafValues>
        -2.3952569067478180e-001 4.1224488615989685e-001</leafValues></_>
    <_>
      <internalNodes>
        0 -1 1898 -756415456 -152572748 -823513700 -4604164 -1116035662
        -2131398810 -1894732037 -1147681618</internalNodes>
      <leafValues>
        -1.9815586507320404e-001 5.1512175798416138e-001</leafValues></_>
    <_>
      <internalNodes>
        0 -1 7850 -152904184 -151453710 -354491312 -752192592
        -1359038816 928808950 1601822442 -15998818</internalNodes>
      <leafValues>
        -2.4480591714382172e-001 4.9743318557739258e-001</leafValues></_>
    <_>
      <internalNodes>
        0 -1 3938 292424898 -1852452496 420493849 814789917 348703587
        184946689 4723727 1163667071</internalNodes>
      <leafValues>
        -4.2590817809104919e-001 2.7533230185508728e-001</leafValues></_>
    <_>
      <internalNodes>
        0 -1 4425 -92991823 1935703905 1944239864 1944125287 -677548180
        930993983 -321106632 -938113541</internalNodes>
      <leafValues>
        -2.5377938151359558e-001 4.6290317177772522e-001</leafValues></_>
    <_>
      <internalNodes>
        0 -1 5199 -826048364 1349838116 -59281729 -8560838 -8390852
        -1762758657 -856236609 -6310869</internalNodes>
      <leafValues>
        -2.1323910355567932e-001 5.9843009710311890e-001</leafValues></_>
    <_>
      <internalNodes>
        0 -1 3828 -1225767290 -545658017 -335888586 1646407274 394245726
        -50890889 -1367933030 -604245122</internalNodes>
      <leafValues>
        -2.6881432533264160e-001 4.3661946058273315e-001</leafValues></_>
    <_>
      <internalNodes>
        0 -1 6796 -752447640 -1802605272 1828417120 2145705465
        -469840692 -537608331 -134426659 -205574677</internalNodes>
      <leafValues>
        -2.1974158287048340e-001 5.6513553857803345e-001</leafValues></_>
    <_>
      <internalNodes>
        0 -1 2957 436723715 1524024066 1371804237 270459451 600519603
        1090601088 -2008542783 -970550461</internalNodes>
      <leafValues>
        -3.7885233759880066e-001 3.4293526411056519e-001</leafValues></_>
    <_>
      <internalNodes>
        0 -1 6089 -791961334 273236036 -1056894702 427901212 -1291147013
        1208551627 -2004871112 477303336</internalNodes>
      <leafValues>
        -3.5970577597618103e-001 3.8185667991638184e-001</leafValues></_>
    <_>
      <internalNodes>
        0 -1 5118 -1594168630 -621367561 2146316127 -35149651 234880172
        -1896351763 2013185886 -1744830946</internalNodes>
      <leafValues>
        -2.8759104013442993e-001 5.0512897968292236e-001</leafValues></_>
    <_>
      <internalNodes>
        0 -1 3591 661750610 -401776631 1612267664 -1586621168 273295699
        294846481 -2130107279 973825227</internalNodes>
      <leafValues>
        -4.3653237819671631e-001 3.3176898956298828e-001</leafValues></_>
    <_>
      <internalNodes>
        0 -1 5067 1736410071 1655598703 -680121097 -30577997 -411153234
        -248881161 1400467288 -1707840110</internalNodes>
      <leafValues>
        -3.0427488684654236e-001 4.6879878640174866e-001</leafValues></_>
    <_>
      <internalNodes>
        0 -1 4525 -876142302 -2041347770 271688534 1136659674
        -1457418063 369137808 571483149 632359</internalNodes>
      <leafValues>
        -5.4271286725997925e-001 2.5501713156700134e-001</leafValues></_></weakClassifiers></stage20>
</opencv_storage>
